<?xml version="1.0"?>
<opencv_storage>
<cascade>
  <stageType>BOOST</stageType>
  <featureType>HAAR</featureType>
  <height>24</height>
  <width>24</width>
  <stageParams>
    <boostType>GAB</boostType>
    <minHitRate>9.9500000476837158e-01</minHitRate>
    <maxFalseAlarm>5.0000000000000000e-01</maxFalseAlarm>
    <weightTrimRate>9.4999998807907104e-01</weightTrimRate>
    <maxDepth>1</maxDepth>
    <maxWeakCount>100</maxWeakCount></stageParams>
  <featureParams>
    <maxCatCount>0</maxCatCount>
    <featSize>1</featSize>
    <mode>BASIC</mode></featureParams>
  <stageNum>20</stageNum>
  <stages>
    <!-- stage 0 -->
    <_>
      <maxWeakCount>6</maxWeakCount>
      <stageThreshold>-1.4014271497726440e+00</stageThreshold>
      <weakClassifiers>
        <_>
          <internalNodes>
            0 -1 39 -1.2513965368270874e-01</internalNodes>
          <leafValues>
            6.1971831321716309e-01 -5.2692306041717529e-01</leafValues></_>
        <_>
          <internalNodes>
            0 -1 15 -8.8245316874235868e-05</internalNodes>
          <leafValues>
            5.2864819765090942e-01 -4.3712899088859558e-01</leafValues></_>
        <_>
          <internalNodes>
            0 -1 83 -1.0615173960104585e-04</internalNodes>
          <leafValues>
            5.9642708301544189e-01 -3.9645123481750488e-01</leafValues></_>
        <_>
          <internalNodes>
            0 -1 106 7.8622644650749862e-05</internalNodes>
          <leafValues>
            -3.4028539061546326e-01 5.6996029615402222e-01</leafValues></_>
        <_>
          <internalNodes>
            0 -1 96 -1.1502049346745480e-05</internalNodes>
          <leafValues>
            5.0461560487747192e-01 -3.4766966104507446e-01</leafValues></_>
        <_>
          <internalNodes>
            0 -1 67 -4.2302668589400128e-05</internalNodes>
          <leafValues>
            5.7721781730651855e-01 -3.4584715962409973e-01</leafValues></_></weakClassifiers></_>
    <!-- stage 1 -->
    <_>
      <maxWeakCount>5</maxWeakCount>
      <stageThreshold>-9.7751408815383911e-01</stageThreshold>
      <weakClassifiers>
        <_>
          <internalNodes>
            0 -1 128 -1.5957510186126456e-05</internalNodes>
          <leafValues>
            3.7089201807975769e-01 -5.9020042419433594e-01</leafValues></_>
        <_>
          <internalNodes>
            0 -1 23 -8.3769985940307379e-04</internalNodes>
          <leafValues>
            4.9165737628936768e-01 -4.6633896231651306e-01</leafValues></_>
        <_>
          <internalNodes>
            0 -1 12 -3.9555527269840240e-02</internalNodes>
          <leafValues>
            7.0979428291320801e-01 -2.5303161144256592e-01</leafValues></_>
        <_>
          <internalNodes>
            0 -1 117 -5.9621594846248627e-03</internalNodes>
          <leafValues>
            6.1201000213623047e-01 -3.0137133598327637e-01</leafValues></_>
        <_>
          <internalNodes>
            0 -1 84 2.4073466192930937e-03</internalNodes>
          <leafValues>
            -2.7995303273200989e-01 6.5085268020629883e-01</leafValues></_></weakClassifiers></_>
    <!-- stage 2 -->
    <_>
      <maxWeakCount>6</maxWeakCount>
      <stageThreshold>-9.8825466632843018e-01</stageThreshold>
      <weakClassifiers>
        <_>
          <internalNodes>
            0 -1 49 -1.3013981282711029e-02</internalNodes>
          <leafValues>
            5.3333336114883423e-01 -5.1953125000000000e-01</leafValues></_>
        <_>
          <internalNodes>
            0 -1 107 -5.8840081328526139e-04</internalNodes>
          <leafValues>
            5.9387940168380737e-01 -4.3649789690971375e-01</leafValues></_>
        <_>
          <internalNodes>
            0 -1 28 -2.6157631073147058e-03</internalNodes>
          <leafValues>
            5.0878798961639404e-01 -4.2275977134704590e-01</leafValues></_>
        <_>
          <internalNodes>
            0 -1 105 -1.2296617496758699e-03</internalNodes>
          <leafValues>
            5.6857949495315552e-01 -3.4951874613761902e-01</leafValues></_>
        <_>
          <internalNodes>
            0 -1 71 -8.9715491048991680e-04</internalNodes>
          <leafValues>
            5.4392117261886597e-01 -3.2164630293846130e-01</leafValues></_>
        <_>
          <internalNodes>
            0 -1 13 4.5426413416862488e-03</internalNodes>
          <leafValues>
            1.9613182544708252e-01 -8.7265199422836304e-01</leafValues></_></weakClassifiers></_>
    <!-- stage 3 -->
    <_>
      <maxWeakCount>10</maxWeakCount>
      <stageThreshold>-7.8553456068038940e-01</stageThreshold>
      <weakClassifiers>
        <_>
          <internalNodes>
            0 -1 52 -1.0362610220909119e-02</internalNodes>
          <leafValues>
            6.7924529314041138e-01 -4.6402877569198608e-01</leafValues></_>
        <_>
          <internalNodes>
            0 -1 29 8.4498152136802673e-03</internalNodes>
          <leafValues>
            -2.7495622634887695e-01 6.5046590566635132e-01</leafValues></_>
        <_>
          <internalNodes>
            0 -1 55 -3.9932387880980968e-03</internalNodes>
          <leafValues>
            6.3341873884201050e-01 -2.7289518713951111e-01</leafValues></_>
        <_>
          <internalNodes>
            0 -1 1 1.8100436776876450e-02</internalNodes>
          <leafValues>
            -3.0145147442817688e-01 6.6550213098526001e-01</leafValues></_>
        <_>
          <internalNodes>
            0 -1 58 -4.1549014858901501e-03</internalNodes>
          <leafValues>
            7.2632664442062378e-01 -1.8458944559097290e-01</leafValues></_>
        <_>
          <internalNodes>
            0 -1 132 -4.6101340558379889e-04</internalNodes>
          <leafValues>
            4.5958912372589111e-01 -3.8880866765975952e-01</leafValues></_>
        <_>
          <internalNodes>
            0 -1 16 -3.8416378200054169e-02</internalNodes>
          <leafValues>
            7.0611119270324707e-01 -2.7207487821578979e-01</leafValues></_>
        <_>
          <internalNodes>
            0 -1 93 3.3355904743075371e-03</internalNodes>
          <leafValues>
            -1.5824916958808899e-01 7.2086387872695923e-01</leafValues></_>
        <_>
          <internalNodes>
            0 -1 146 2.4257241748273373e-03</internalNodes>
          <leafValues>
            2.1983280777931213e-01 -7.4559801816940308e-01</leafValues></_>
        <_>
          <internalNodes>
            0 -1 115 -8.5591746028512716e-04</internalNodes>
          <leafValues>
            4.6328866481781006e-01 -3.6565580964088440e-01</leafValues></_></weakClassifiers></_>
    <!-- stage 4 -->
    <_>
      <maxWeakCount>7</maxWeakCount>
      <stageThreshold>-1.0820538997650146e+00</stageThreshold>
      <weakClassifiers>
        <_>
          <internalNodes>
            0 -1 104 -3.4312321804463863e-03</internalNodes>
          <leafValues>
            5.8333331346511841e-01 -4.2756184935569763e-01</leafValues></_>
        <_>
          <internalNodes>
            0 -1 120 -3.1293791253119707e-03</internalNodes>
          <leafValues>
            4.8271295428276062e-01 -3.1102269887924194e-01</leafValues></_>
        <_>
          <internalNodes>
            0 -1 66 4.8929681070148945e-03</internalNodes>
          <leafValues>
            -2.4652586877346039e-01 6.2675935029983521e-01</leafValues></_>
        <_>
          <internalNodes>
            0 -1 109 -1.5903955791145563e-03</internalNodes>
          <leafValues>
            5.4079478979110718e-01 -2.4544651806354523e-01</leafValues></_>
        <_>
          <internalNodes>
            0 -1 6 -5.8252080343663692e-03</internalNodes>
          <leafValues>
            -8.4313184022903442e-01 1.7795619368553162e-01</leafValues></_>
        <_>
          <internalNodes>
            0 -1 40 -2.1750153973698616e-03</internalNodes>
          <leafValues>
            4.7794455289840698e-01 -3.0783775448799133e-01</leafValues></_>
        <_>
          <internalNodes>
            0 -1 2 3.7496171426028013e-03</internalNodes>
          <leafValues>
            2.7838462591171265e-01 -6.6214048862457275e-01</leafValues></_></weakClassifiers></_>
    <!-- stage 5 -->
    <_>
      <maxWeakCount>9</maxWeakCount>
      <stageThreshold>-8.4868854284286499e-01</stageThreshold>
      <weakClassifiers>
        <_>
          <internalNodes>
            0 -1 25 -1.0081345215439796e-02</internalNodes>
          <leafValues>
            7.0370370149612427e-01 -4.1824439167976379e-01</leafValues></_>
        <_>
          <internalNodes>
            0 -1 87 -3.0412699561566114e-04</internalNodes>
          <leafValues>
            5.3705942630767822e-01 -3.0091863870620728e-01</leafValues></_>
        <_>
          <internalNodes>
            0 -1 97 -9.4162020832300186e-04</internalNodes>
          <leafValues>
            4.3193897604942322e-01 -3.5352960228919983e-01</leafValues></_>
        <_>
          <internalNodes>
            0 -1 70 -1.7582545988261700e-03</internalNodes>
          <leafValues>
            5.6142568588256836e-01 -2.6912629604339600e-01</leafValues></_>
        <_>
          <internalNodes>
            0 -1 72 9.7851641476154327e-04</internalNodes>
          <leafValues>
            -2.7548599243164063e-01 5.0505143404006958e-01</leafValues></_>
        <_>
          <internalNodes>
            0 -1 24 -2.3611998185515404e-03</internalNodes>
          <leafValues>
            4.9496346712112427e-01 -2.8964489698410034e-01</leafValues></_>
        <_>
          <internalNodes>
            0 -1 7 -6.8469280377030373e-03</internalNodes>
          <leafValues>
            4.3911853432655334e-01 -3.5963422060012817e-01</leafValues></_>
        <_>
          <internalNodes>
            0 -1 133 1.0522563243284822e-03</internalNodes>
          <leafValues>
            1.8428474664688110e-01 -8.4750866889953613e-01</leafValues></_>
        <_>
          <internalNodes>
            0 -1 80 1.8198671750724316e-04</internalNodes>
          <leafValues>
            -3.3153501152992249e-01 4.6355688571929932e-01</leafValues></_></weakClassifiers></_>
    <!-- stage 6 -->
    <_>
      <maxWeakCount>4</maxWeakCount>
      <stageThreshold>-4.7283828258514404e-01</stageThreshold>
      <weakClassifiers>
        <_>
          <internalNodes>
            0 -1 63 2.3337826132774353e-03</internalNodes>
          <leafValues>
            -8.8495574891567230e-03 -8.6666667461395264e-01</leafValues></_>
        <_>
          <internalNodes>
            0 -1 118 6.3179538119584322e-04</internalNodes>
          <leafValues>
            1.4321997761726379e-01 -8.7405753135681152e-01</leafValues></_>
        <_>
          <internalNodes>
            0 -1 47 1.5749864978715777e-03</internalNodes>
          <leafValues>
            2.0686095952987671e-01 -7.7687090635299683e-01</leafValues></_>
        <_>
          <internalNodes>
            0 -1 61 3.6777008790522814e-03</internalNodes>
          <leafValues>
            2.2856241464614868e-01 -8.1406968832015991e-01</leafValues></_></weakClassifiers></_>
    <!-- stage 7 -->
    <_>
      <maxWeakCount>5</maxWeakCount>
      <stageThreshold>-1.0257445573806763e+00</stageThreshold>
      <weakClassifiers>
        <_>
          <internalNodes>
            0 -1 54 -2.6941217947751284e-03</internalNodes>
          <leafValues>
            -8.1538462638854980e-01 6.4676620066165924e-02</leafValues></_>
        <_>
          <internalNodes>
            0 -1 91 -3.4712362103164196e-03</internalNodes>
          <leafValues>
            -8.3973628282546997e-01 1.2963478267192841e-01</leafValues></_>
        <_>
          <internalNodes>
            0 -1 11 -2.3622773587703705e-03</internalNodes>
          <leafValues>
            -8.0188304185867310e-01 2.0584504306316376e-01</leafValues></_>
        <_>
          <internalNodes>
            0 -1 32 1.2229377403855324e-02</internalNodes>
          <leafValues>
            2.1392750740051270e-01 -6.9669455289840698e-01</leafValues></_>
        <_>
          <internalNodes>
            0 -1 119 -3.3068051561713219e-03</internalNodes>
          <leafValues>
            -7.1686816215515137e-01 2.0960386097431183e-01</leafValues></_></weakClassifiers></_>
    <!-- stage 8 -->
    <_>
      <maxWeakCount>6</maxWeakCount>
      <stageThreshold>-8.1164151430130005e-01</stageThreshold>
      <weakClassifiers>
        <_>
          <internalNodes>
            0 -1 121 1.0432934761047363e-01</internalNodes>
          <leafValues>
            -4.2413792014122009e-01 7.3170733451843262e-01</leafValues></_>
        <_>
          <internalNodes>
            0 -1 53 1.2258456263225526e-04</internalNodes>
          <leafValues>
            2.2629883885383606e-01 -6.7568594217300415e-01</leafValues></_>
        <_>
          <internalNodes>
            0 -1 141 -4.9339176621288061e-04</internalNodes>
          <leafValues>
            -8.2629501819610596e-01 1.4008113741874695e-01</leafValues></_>
        <_>
          <internalNodes>
            0 -1 8 -4.1170112788677216e-02</internalNodes>
          <leafValues>
            4.9170902371406555e-01 -2.7945679426193237e-01</leafValues></_>
        <_>
          <internalNodes>
            0 -1 18 1.8763095140457153e-03</internalNodes>
          <leafValues>
            1.5064312517642975e-01 -9.1743099689483643e-01</leafValues></_>
        <_>
          <internalNodes>
            0 -1 9 2.3284091730602086e-04</internalNodes>
          <leafValues>
            -4.0385350584983826e-01 3.4130623936653137e-01</leafValues></_></weakClassifiers></_>
    <!-- stage 9 -->
    <_>
      <maxWeakCount>6</maxWeakCount>
      <stageThreshold>-1.1426712274551392e+00</stageThreshold>
      <weakClassifiers>
        <_>
          <internalNodes>
            0 -1 75 -1.7637337441556156e-04</internalNodes>
          <leafValues>
            -8.0228137969970703e-01 6.2656641006469727e-02</leafValues></_>
        <_>
          <internalNodes>
            0 -1 127 -5.1517285406589508e-02</internalNodes>
          <leafValues>
            7.3891830444335938e-01 -3.1495705246925354e-01</leafValues></_>
        <_>
          <internalNodes>
            0 -1 22 -1.6135692130774260e-03</internalNodes>
          <leafValues>
            -7.3345696926116943e-01 2.5539052486419678e-01</leafValues></_>
        <_>
          <internalNodes>
            0 -1 22 3.2225435134023428e-03</internalNodes>
          <leafValues>
            2.8558304905891418e-01 -5.9051990509033203e-01</leafValues></_>
        <_>
          <internalNodes>
            0 -1 10 -2.9954325873404741e-04</internalNodes>
          <leafValues>
            -7.3892879486083984e-01 1.9133006036281586e-01</leafValues></_>
        <_>
          <internalNodes>
            0 -1 135 -3.7871863692998886e-02</internalNodes>
          <leafValues>
            -7.8279805183410645e-01 1.7252239584922791e-01</leafValues></_></weakClassifiers></_>
    <!-- stage 10 -->
    <_>
      <maxWeakCount>7</maxWeakCount>
      <stageThreshold>-9.9046021699905396e-01</stageThreshold>
      <weakClassifiers>
        <_>
          <internalNodes>
            0 -1 4 -4.1765131056308746e-02</internalNodes>
          <leafValues>
            4.5714285969734192e-01 -4.7892719507217407e-01</leafValues></_>
        <_>
          <internalNodes>
            0 -1 26 -1.8590388353914022e-03</internalNodes>
          <leafValues>
            -5.8520209789276123e-01 2.2023554146289825e-01</leafValues></_>
        <_>
          <internalNodes>
            0 -1 37 1.6615010099485517e-03</internalNodes>
          <leafValues>
            2.6419377326965332e-01 -6.1884105205535889e-01</leafValues></_>
        <_>
          <internalNodes>
            0 -1 50 4.1276607662439346e-03</internalNodes>
          <leafValues>
            -3.3896896243095398e-01 5.4137301445007324e-01</leafValues></_>
        <_>
          <internalNodes>
            0 -1 122 -5.2782176062464714e-03</internalNodes>
          <leafValues>
            6.4873766899108887e-01 -1.9936980307102203e-01</leafValues></_>
        <_>
          <internalNodes>
            0 -1 110 3.1689490424469113e-04</internalNodes>
          <leafValues>
            -2.5260141491889954e-01 5.2351868152618408e-01</leafValues></_>
        <_>
          <internalNodes>
            0 -1 136 -2.1337775513529778e-02</internalNodes>
          <leafValues>
            8.3781349658966064e-01 -1.7009475827217102e-01</leafValues></_></weakClassifiers></_>
    <!-- stage 11 -->
    <_>
      <maxWeakCount>8</maxWeakCount>
      <stageThreshold>-1.0895054340362549e+00</stageThreshold>
      <weakClassifiers>
        <_>
          <internalNodes>
            0 -1 30 -1.6495232703164220e-03</internalNodes>
          <leafValues>
            -7.5833332538604736e-01 -9.4786733388900757e-03</leafValues></_>
        <_>
          <internalNodes>
            0 -1 76 -1.4460762031376362e-03</internalNodes>
          <leafValues>
            -6.4345085620880127e-01 1.5134622156620026e-01</leafValues></_>
        <_>
          <internalNodes>
            0 -1 77 -1.7263393849134445e-02</internalNodes>
          <leafValues>
            6.9262260198593140e-01 -1.8860010802745819e-01</leafValues></_>
        <_>
          <internalNodes>
            0 -1 129 -2.4376964196562767e-02</internalNodes>
          <leafValues>
            5.7319760322570801e-01 -2.5819176435470581e-01</leafValues></_>
        <_>
          <internalNodes>
            0 -1 148 7.0174271240830421e-04</internalNodes>
          <leafValues>
            1.8500533699989319e-01 -6.4483469724655151e-01</leafValues></_>
        <_>
          <internalNodes>
            0 -1 102 -1.3678264804184437e-03</internalNodes>
          <leafValues>
            3.7613686919212341e-01 -2.9862582683563232e-01</leafValues></_>
        <_>
          <internalNodes>
            0 -1 116 2.1472020074725151e-02</internalNodes>
          <leafValues>
            -2.4991749227046967e-01 5.0805467367172241e-01</leafValues></_>
        <_>
          <internalNodes>
            0 -1 113 -2.1550669334828854e-03</internalNodes>
          <leafValues>
            -5.9253072738647461e-01 2.4138581752777100e-01</leafValues></_></weakClassifiers></_>
    <!-- stage 12 -->
    <_>
      <maxWeakCount>8</maxWeakCount>
      <stageThreshold>-6.9088101387023926e-01</stageThreshold>
      <weakClassifiers>
        <_>
          <internalNodes>
            0 -1 126 5.5092193186283112e-02</internalNodes>
          <leafValues>
            -4.4444444775581360e-01 3.2857143878936768e-01</leafValues></_>
        <_>
          <internalNodes>
            0 -1 147 -3.7292798515409231e-04</internalNodes>
          <leafValues>
            -8.3696776628494263e-01 1.2555138766765594e-01</leafValues></_>
        <_>
          <internalNodes>
            0 -1 42 2.0330559462308884e-02</internalNodes>
          <leafValues>
            -2.3389001190662384e-01 4.6971499919891357e-01</leafValues></_>
        <_>
          <internalNodes>
            0 -1 145 5.5500328016933054e-05</internalNodes>
          <leafValues>
            2.5911685824394226e-01 -4.8029774427413940e-01</leafValues></_>
        <_>
          <internalNodes>
            0 -1 45 -8.4635609528049827e-04</internalNodes>
          <leafValues>
            3.8047093152999878e-01 -2.8855824470520020e-01</leafValues></_>
        <_>
          <internalNodes>
            0 -1 89 1.6985648544505239e-03</internalNodes>
          <leafValues>
            1.0541471838951111e-01 -9.2260074615478516e-01</leafValues></_>
        <_>
          <internalNodes>
            0 -1 100 9.2146787792444229e-03</internalNodes>
          <leafValues>
            -2.8519320487976074e-01 4.0948724746704102e-01</leafValues></_>
        <_>
          <internalNodes>
            0 -1 103 -3.1725008739158511e-05</internalNodes>
          <leafValues>
            3.3101058006286621e-01 -3.2191947102546692e-01</leafValues></_></weakClassifiers></_>
    <!-- stage 13 -->
    <_>
      <maxWeakCount>7</maxWeakCount>
      <stageThreshold>-8.9517378807067871e-01</stageThreshold>
      <weakClassifiers>
        <_>
          <internalNodes>
            0 -1 31 -2.3082653933670372e-04</internalNodes>
          <leafValues>
            -7.4166667461395264e-01 -1.8957346677780151e-02</leafValues></_>
        <_>
          <internalNodes>
            0 -1 137 1.3891368871554732e-04</internalNodes>
          <leafValues>
            2.0941351354122162e-01 -6.5341258049011230e-01</leafValues></_>
        <_>
          <internalNodes>
            0 -1 98 -1.2089188385289162e-04</internalNodes>
          <leafValues>
            -5.1651054620742798e-01 2.5330263376235962e-01</leafValues></_>
        <_>
          <internalNodes>
            0 -1 81 7.1637157816439867e-04</internalNodes>
          <leafValues>
            -2.5548756122589111e-01 5.7792240381240845e-01</leafValues></_>
        <_>
          <internalNodes>
            0 -1 143 -4.5259737817104906e-05</internalNodes>
          <leafValues>
            -6.0206276178359985e-01 2.4404078722000122e-01</leafValues></_>
        <_>
          <internalNodes>
            0 -1 99 -5.3500818467000499e-05</internalNodes>
          <leafValues>
            -5.2698457241058350e-01 2.2489020228385925e-01</leafValues></_>
        <_>
          <internalNodes>
            0 -1 3 -5.1780231297016144e-03</internalNodes>
          <leafValues>
            -7.7320116758346558e-01 1.5655361115932465e-01</leafValues></_></weakClassifiers></_>
    <!-- stage 14 -->
    <_>
      <maxWeakCount>6</maxWeakCount>
      <stageThreshold>-6.3791453838348389e-01</stageThreshold>
      <weakClassifiers>
        <_>
          <internalNodes>
            0 -1 0 -2.5407761335372925e-02</internalNodes>
          <leafValues>
            2.3671497404575348e-01 -5.1648354530334473e-01</leafValues></_>
        <_>
          <internalNodes>
            0 -1 17 -2.1393103525042534e-03</internalNodes>
          <leafValues>
            -5.2579683065414429e-01 2.5889542698860168e-01</leafValues></_>
        <_>
          <internalNodes>
            0 -1 38 1.0760053992271423e-03</internalNodes>
          <leafValues>
            1.8557050824165344e-01 -5.6681638956069946e-01</leafValues></_>
        <_>
          <internalNodes>
            0 -1 48 -2.0930746104568243e-03</internalNodes>
          <leafValues>
            -7.1713685989379883e-01 1.6738997399806976e-01</leafValues></_>
        <_>
          <internalNodes>
            0 -1 27 3.6128910724073648e-03</internalNodes>
          <leafValues>
            -2.6635783910751343e-01 4.9391460418701172e-01</leafValues></_>
        <_>
          <internalNodes>
            0 -1 65 -2.7464427985250950e-03</internalNodes>
          <leafValues>
            4.1800123453140259e-01 -3.1118091940879822e-01</leafValues></_></weakClassifiers></_>
    <!-- stage 15 -->
    <_>
      <maxWeakCount>8</maxWeakCount>
      <stageThreshold>-1.1481420993804932e+00</stageThreshold>
      <weakClassifiers>
        <_>
          <internalNodes>
            0 -1 82 9.1805569827556610e-03</internalNodes>
          <leafValues>
            -5.0000000000000000e-01 1.3043478131294250e-01</leafValues></_>
        <_>
          <internalNodes>
            0 -1 46 -7.1031616243999451e-05</internalNodes>
          <leafValues>
            -6.3041216135025024e-01 1.5374338626861572e-01</leafValues></_>
        <_>
          <internalNodes>
            0 -1 36 7.7500869520008564e-04</internalNodes>
          <leafValues>
            1.5312850475311279e-01 -6.7968922853469849e-01</leafValues></_>
        <_>
          <internalNodes>
            0 -1 88 7.1859743911772966e-04</internalNodes>
          <leafValues>
            -3.3254507184028625e-01 3.8298255205154419e-01</leafValues></_>
        <_>
          <internalNodes>
            0 -1 19 5.2413577213883400e-03</internalNodes>
          <leafValues>
            -2.6425194740295410e-01 4.3704107403755188e-01</leafValues></_>
        <_>
          <internalNodes>
            0 -1 85 -4.4569377787411213e-03</internalNodes>
          <leafValues>
            -7.1362924575805664e-01 1.5900255739688873e-01</leafValues></_>
        <_>
          <internalNodes>
            0 -1 142 8.8249624241143465e-04</internalNodes>
          <leafValues>
            1.3823911547660828e-01 -6.4738667011260986e-01</leafValues></_>
        <_>
          <internalNodes>
            0 -1 14 3.3186305314302444e-02</internalNodes>
          <leafValues>
            1.3016720116138458e-01 -7.2030645608901978e-01</leafValues></_></weakClassifiers></_>
    <!-- stage 16 -->
    <_>
      <maxWeakCount>8</maxWeakCount>
      <stageThreshold>-8.4700107574462891e-01</stageThreshold>
      <weakClassifiers>
        <_>
          <internalNodes>
            0 -1 21 2.9967874288558960e-02</internalNodes>
          <leafValues>
            -4.6567717194557190e-01 5.2845525741577148e-01</leafValues></_>
        <_>
          <internalNodes>
            0 -1 108 1.7029893569997512e-05</internalNodes>
          <leafValues>
            -3.4501940011978149e-01 4.6060943603515625e-01</leafValues></_>
        <_>
          <internalNodes>
            0 -1 60 2.5039520551217720e-05</internalNodes>
          <leafValues>
            -4.8630249500274658e-01 3.7568932771682739e-01</leafValues></_>
        <_>
          <internalNodes>
            0 -1 123 1.4330060366773978e-05</internalNodes>
          <leafValues>
            -3.1199175119400024e-01 5.0947904586791992e-01</leafValues></_>
        <_>
          <internalNodes>
            0 -1 138 -1.2373186182230711e-03</internalNodes>
          <leafValues>
            -5.2086997032165527e-01 3.4196355938911438e-01</leafValues></_>
        <_>
          <internalNodes>
            0 -1 57 3.4225266426801682e-04</internalNodes>
          <leafValues>
            -3.0364465713500977e-01 5.1243263483047485e-01</leafValues></_>
        <_>
          <internalNodes>
            0 -1 130 -1.4379406820808072e-05</internalNodes>
          <leafValues>
            4.4116067886352539e-01 -3.5233315825462341e-01</leafValues></_>
        <_>
          <internalNodes>
            0 -1 134 1.4358677435666323e-04</internalNodes>
          <leafValues>
            3.1173795461654663e-01 -5.3525948524475098e-01</leafValues></_></weakClassifiers></_>
    <!-- stage 17 -->
    <_>
      <maxWeakCount>10</maxWeakCount>
      <stageThreshold>-9.1038823127746582e-01</stageThreshold>
      <weakClassifiers>
        <_>
          <internalNodes>
            0 -1 78 -1.9726324081420898e-01</internalNodes>
          <leafValues>
            7.5862067937850952e-01 -3.8079470396041870e-01</leafValues></_>
        <_>
          <internalNodes>
            0 -1 140 5.0029042176902294e-03</internalNodes>
          <leafValues>
            1.7401911318302155e-01 -6.1514383554458618e-01</leafValues></_>
        <_>
          <internalNodes>
            0 -1 74 3.1563459197059274e-04</internalNodes>
          <leafValues>
            1.6407290101051331e-01 -7.1628624200820923e-01</leafValues></_>
        <_>
          <internalNodes>
            0 -1 94 4.1216861456632614e-02</internalNodes>
          <leafValues>
            -2.1958969533443451e-01 5.9407722949981689e-01</leafValues></_>
        <_>
          <internalNodes>
            0 -1 73 -5.6498926132917404e-03</internalNodes>
          <leafValues>
            -9.4752293825149536e-01 1.8787895143032074e-01</leafValues></_>
        <_>
          <internalNodes>
            0 -1 33 2.8879800811409950e-03</internalNodes>
          <leafValues>
            -2.4881674349308014e-01 5.5649685859680176e-01</leafValues></_>
        <_>
          <internalNodes>
            0 -1 62 -1.7864147666841745e-03</internalNodes>
          <leafValues>
            3.9097723364830017e-01 -3.1238740682601929e-01</leafValues></_>
        <_>
          <internalNodes>
            0 -1 111 1.7692968249320984e-03</internalNodes>
          <leafValues>
            -2.0872917771339417e-01 5.8682727813720703e-01</leafValues></_>
        <_>
          <internalNodes>
            0 -1 131 6.9666989147663116e-03</internalNodes>
          <leafValues>
            -2.0431187748908997e-01 5.9428668022155762e-01</leafValues></_>
        <_>
          <internalNodes>
            0 -1 5 9.9623482674360275e-04</internalNodes>
          <leafValues>
            1.3827042281627655e-01 -1.</leafValues></_></weakClassifiers></_>
    <!-- stage 18 -->
    <_>
      <maxWeakCount>13</maxWeakCount>
      <stageThreshold>-1.1165353059768677e+00</stageThreshold>
      <weakClassifiers>
        <_>
          <internalNodes>
            0 -1 112 2.6009837165474892e-03</internalNodes>
          <leafValues>
            -4.8008385300636292e-01 2.3243242502212524e-01</leafValues></_>
        <_>
          <internalNodes>
            0 -1 114 -6.7685521207749844e-04</internalNodes>
          <leafValues>
            2.8413885831832886e-01 -2.8178259730339050e-01</leafValues></_>
        <_>
          <internalNodes>
            0 -1 56 2.2749457275494933e-04</internalNodes>
          <leafValues>
            -2.7580243349075317e-01 3.2444339990615845e-01</leafValues></_>
        <_>
          <internalNodes>
            0 -1 86 2.2334148525260389e-04</internalNodes>
          <leafValues>
            1.8311551213264465e-01 -4.8325100541114807e-01</leafValues></_>
        <_>
          <internalNodes>
            0 -1 41 -1.1780406348407269e-03</internalNodes>
          <leafValues>
            3.2980459928512573e-01 -2.7603694796562195e-01</leafValues></_>
        <_>
          <internalNodes>
            0 -1 90 -1.7581356223672628e-03</internalNodes>
          <leafValues>
            5.1860445737838745e-01 -1.4810004830360413e-01</leafValues></_>
        <_>
          <internalNodes>
            0 -1 69 2.5534974411129951e-03</internalNodes>
          <leafValues>
            1.0427820682525635e-01 -8.5759019851684570e-01</leafValues></_>
        <_>
          <internalNodes>
            0 -1 51 1.8321790266782045e-03</internalNodes>
          <leafValues>
            -2.8821551799774170e-01 3.8119781017303467e-01</leafValues></_>
        <_>
          <internalNodes>
            0 -1 64 5.7130142522510141e-05</internalNodes>
          <leafValues>
            -1.7970591783523560e-01 4.9853315949440002e-01</leafValues></_>
        <_>
          <internalNodes>
            0 -1 95 -1.5514863189309835e-03</internalNodes>
          <leafValues>
            3.9381721615791321e-01 -2.4966356158256531e-01</leafValues></_>
        <_>
          <internalNodes>
            0 -1 43 1.4008075231686234e-04</internalNodes>
          <leafValues>
            -2.5362110137939453e-01 4.0594851970672607e-01</leafValues></_>
        <_>
          <internalNodes>
            0 -1 68 3.8942825049161911e-03</internalNodes>
          <leafValues>
            -3.8345208764076233e-01 3.3065035939216614e-01</leafValues></_>
        <_>
          <internalNodes>
            0 -1 20 1.1936228256672621e-03</internalNodes>
          <leafValues>
            1.5271957218647003e-01 -7.6839983463287354e-01</leafValues></_></weakClassifiers></_>
    <!-- stage 19 -->
    <_>
      <maxWeakCount>12</maxWeakCount>
      <stageThreshold>-8.9680922031402588e-01</stageThreshold>
      <weakClassifiers>
        <_>
          <internalNodes>
            0 -1 139 2.2163050249218941e-02</internalNodes>
          <leafValues>
            -3.9583334326744080e-01 4.8837208747863770e-01</leafValues></_>
        <_>
          <internalNodes>
            0 -1 144 -2.9509293381124735e-04</internalNodes>
          <leafValues>
            -4.6814042329788208e-01 1.7447991669178009e-01</leafValues></_>
        <_>
          <internalNodes>
            0 -1 34 -5.1040225662291050e-04</internalNodes>
          <leafValues>
            3.8156875967979431e-01 -2.2720350325107574e-01</leafValues></_>
        <_>
          <internalNodes>
            0 -1 59 1.5923794126138091e-04</internalNodes>
          <leafValues>
            -3.3965829014778137e-01 2.7514085173606873e-01</leafValues></_>
        <_>
          <internalNodes>
            0 -1 92 -6.7971505224704742e-02</internalNodes>
          <leafValues>
            4.9408742785453796e-01 -1.7647963762283325e-01</leafValues></_>
        <_>
          <internalNodes>
            0 -1 124 1.7093951464630663e-04</internalNodes>
          <leafValues>
            1.4634445309638977e-01 -6.3710570335388184e-01</leafValues></_>
        <_>
          <internalNodes>
            0 -1 125 -5.8913434622809291e-04</internalNodes>
          <leafValues>
            3.7285301089286804e-01 -2.4978402256965637e-01</leafValues></_>
        <_>
          <internalNodes>
            0 -1 101 1.0303164162905887e-04</internalNodes>
          <leafValues>
            -2.1609953045845032e-01 3.9527311921119690e-01</leafValues></_>
        <_>
          <internalNodes>
            0 -1 35 6.0933642089366913e-04</internalNodes>
          <leafValues>
            -3.3251905441284180e-01 3.2359045743942261e-01</leafValues></_>
        <_>
          <internalNodes>
            0 -1 44 3.0736001208424568e-02</internalNodes>
          <leafValues>
            -1.1775305122137070e-01 7.8140455484390259e-01</leafValues></_>
        <_>
          <internalNodes>
            0 -1 13 -5.2320520626381040e-04</internalNodes>
          <leafValues>
            -4.9569097161293030e-01 2.0556436479091644e-01</leafValues></_>
        <_>
          <internalNodes>
            0 -1 79 2.2391728125512600e-03</internalNodes>
          <leafValues>
            -1.9405807554721832e-01 4.7729116678237915e-01</leafValues></_></weakClassifiers></_></stages>
  <features>
    <_>
      <rects>
        <_>
          0 0 4 23 -1.</_>
        <_>
          2 0 2 23 2.</_></rects>
      <tilted>0</tilted></_>
    <_>
      <rects>
        <_>
          0 0 17 6 -1.</_>
        <_>
          0 2 17 2 3.</_></rects>
      <tilted>0</tilted></_>
    <_>
      <rects>
        <_>
          0 1 1 15 -1.</_>
        <_>
          0 6 1 5 3.</_></rects>
      <tilted>0</tilted></_>
    <_>
      <rects>
        <_>
          0 1 2 9 -1.</_>
        <_>
          0 4 2 3 3.</_></rects>
      <tilted>0</tilted></_>
    <_>
      <rects>
        <_>
          0 1 6 15 -1.</_>
        <_>
          2 1 2 15 3.</_></rects>
      <tilted>0</tilted></_>
    <_>
      <rects>
        <_>
          0 2 1 2 -1.</_>
        <_>
          0 3 1 1 2.</_></rects>
      <tilted>0</tilted></_>
    <_>
      <rects>
        <_>
          0 2 1 15 -1.</_>
        <_>
          0 7 1 5 3.</_></rects>
      <tilted>0</tilted></_>
    <_>
      <rects>
        <_>
          0 2 6 14 -1.</_>
        <_>
          2 2 2 14 3.</_></rects>
      <tilted>0</tilted></_>
    <_>
      <rects>
        <_>
          0 3 6 21 -1.</_>
        <_>
          2 3 2 21 3.</_></rects>
      <tilted>0</tilted></_>
    <_>
      <rects>
        <_>
          0 3 8 4 -1.</_>
        <_>
          0 3 4 2 2.</_>
        <_>
          4 5 4 2 2.</_></rects>
      <tilted>0</tilted></_>
    <_>
      <rects>
        <_>
          0 4 1 3 -1.</_>
        <_>
          0 5 1 1 3.</_></rects>
      <tilted>0</tilted></_>
    <_>
      <rects>
        <_>
          0 4 1 9 -1.</_>
        <_>
          0 7 1 3 3.</_></rects>
      <tilted>0</tilted></_>
    <_>
      <rects>
        <_>
          0 4 6 20 -1.</_>
        <_>
          2 4 2 20 3.</_></rects>
      <tilted>0</tilted></_>
    <_>
      <rects>
        <_>
          0 5 1 9 -1.</_>
        <_>
          0 8 1 3 3.</_></rects>
      <tilted>0</tilted></_>
    <_>
      <rects>
        <_>
          0 5 24 5 -1.</_>
        <_>
          12 5 12 5 2.</_></rects>
      <tilted>0</tilted></_>
    <_>
      <rects>
        <_>
          0 7 6 1 -1.</_>
        <_>
          2 7 2 1 3.</_></rects>
      <tilted>0</tilted></_>
    <_>
      <rects>
        <_>
          0 8 8 9 -1.</_>
        <_>
          4 8 4 9 2.</_></rects>
      <tilted>0</tilted></_>
    <_>
      <rects>
        <_>
          0 9 1 12 -1.</_>
        <_>
          0 15 1 6 2.</_></rects>
      <tilted>0</tilted></_>
    <_>
      <rects>
        <_>
          0 13 1 6 -1.</_>
        <_>
          0 16 1 3 2.</_></rects>
      <tilted>0</tilted></_>
    <_>
      <rects>
        <_>
          0 16 8 8 -1.</_>
        <_>
          0 16 4 4 2.</_>
        <_>
          4 20 4 4 2.</_></rects>
      <tilted>0</tilted></_>
    <_>
      <rects>
        <_>
          0 18 1 4 -1.</_>
        <_>
          0 20 1 2 2.</_></rects>
      <tilted>0</tilted></_>
    <_>
      <rects>
        <_>
          0 20 19 4 -1.</_>
        <_>
          0 22 19 2 2.</_></rects>
      <tilted>0</tilted></_>
    <_>
      <rects>
        <_>
          1 0 15 1 -1.</_>
        <_>
          6 0 5 1 3.</_></rects>
      <tilted>0</tilted></_>
    <_>
      <rects>
        <_>
          1 5 12 1 -1.</_>
        <_>
          5 5 4 1 3.</_></rects>
      <tilted>0</tilted></_>
    <_>
      <rects>
        <_>
          1 12 11 3 -1.</_>
        <_>
          1 13 11 1 3.</_></rects>
      <tilted>0</tilted></_>
    <_>
      <rects>
        <_>
          1 19 8 3 -1.</_>
        <_>
          1 20 8 1 3.</_></rects>
      <tilted>0</tilted></_>
    <_>
      <rects>
        <_>
          1 23 22 1 -1.</_>
        <_>
          12 23 11 1 2.</_></rects>
      <tilted>0</tilted></_>
    <_>
      <rects>
        <_>
          2 3 3 20 -1.</_>
        <_>
          3 3 1 20 3.</_></rects>
      <tilted>0</tilted></_>
    <_>
      <rects>
        <_>
          2 12 16 2 -1.</_>
        <_>
          2 13 16 1 2.</_></rects>
      <tilted>0</tilted></_>
    <_>
      <rects>
        <_>
          2 19 18 3 -1.</_>
        <_>
          2 20 18 1 3.</_></rects>
      <tilted>0</tilted></_>
    <_>
      <rects>
        <_>
          2 23 22 1 -1.</_>
        <_>
          13 23 11 1 2.</_></rects>
      <tilted>0</tilted></_>
    <_>
      <rects>
        <_>
          3 0 10 1 -1.</_>
        <_>
          8 0 5 1 2.</_></rects>
      <tilted>0</tilted></_>
    <_>
      <rects>
        <_>
          3 5 18 3 -1.</_>
        <_>
          12 5 9 3 2.</_></rects>
      <tilted>0</tilted></_>
    <_>
      <rects>
        <_>
          3 15 6 1 -1.</_>
        <_>
          6 15 3 1 2.</_></rects>
      <tilted>0</tilted></_>
    <_>
      <rects>
        <_>
          3 18 5 2 -1.</_>
        <_>
          3 19 5 1 2.</_></rects>
      <tilted>0</tilted></_>
    <_>
      <rects>
        <_>
          3 19 18 2 -1.</_>
        <_>
          3 19 9 1 2.</_>
        <_>
          12 20 9 1 2.</_></rects>
      <tilted>0</tilted></_>
    <_>
      <rects>
        <_>
          3 23 4 1 -1.</_>
        <_>
          5 23 2 1 2.</_></rects>
      <tilted>0</tilted></_>
    <_>
      <rects>
        <_>
          3 23 20 1 -1.</_>
        <_>
          13 23 10 1 2.</_></rects>
      <tilted>0</tilted></_>
    <_>
      <rects>
        <_>
          4 0 9 1 -1.</_>
        <_>
          7 0 3 1 3.</_></rects>
      <tilted>0</tilted></_>
    <_>
      <rects>
        <_>
          4 0 19 16 -1.</_>
        <_>
          4 8 19 8 2.</_></rects>
      <tilted>0</tilted></_>
    <_>
      <rects>
        <_>
          4 9 17 3 -1.</_>
        <_>
          4 10 17 1 3.</_></rects>
      <tilted>0</tilted></_>
    <_>
      <rects>
        <_>
          4 10 13 2 -1.</_>
        <_>
          4 11 13 1 2.</_></rects>
      <tilted>0</tilted></_>
    <_>
      <rects>
        <_>
          4 11 18 6 -1.</_>
        <_>
          4 11 9 3 2.</_>
        <_>
          13 14 9 3 2.</_></rects>
      <tilted>0</tilted></_>
    <_>
      <rects>
        <_>
          4 12 2 2 -1.</_>
        <_>
          4 12 1 1 2.</_>
        <_>
          5 13 1 1 2.</_></rects>
      <tilted>0</tilted></_>
    <_>
      <rects>
        <_>
          4 16 10 3 -1.</_>
        <_>
          9 16 5 3 2.</_></rects>
      <tilted>0</tilted></_>
    <_>
      <rects>
        <_>
          4 21 20 2 -1.</_>
        <_>
          4 21 10 1 2.</_>
        <_>
          14 22 10 1 2.</_></rects>
      <tilted>0</tilted></_>
    <_>
      <rects>
        <_>
          4 23 2 1 -1.</_>
        <_>
          5 23 1 1 2.</_></rects>
      <tilted>0</tilted></_>
    <_>
      <rects>
        <_>
          4 23 12 1 -1.</_>
        <_>
          8 23 4 1 3.</_></rects>
      <tilted>0</tilted></_>
    <_>
      <rects>
        <_>
          5 0 9 1 -1.</_>
        <_>
          8 0 3 1 3.</_></rects>
      <tilted>0</tilted></_>
    <_>
      <rects>
        <_>
          5 0 11 6 -1.</_>
        <_>
          5 2 11 2 3.</_></rects>
      <tilted>0</tilted></_>
    <_>
      <rects>
        <_>
          5 6 9 3 -1.</_>
        <_>
          5 7 9 1 3.</_></rects>
      <tilted>0</tilted></_>
    <_>
      <rects>
        <_>
          5 10 5 3 -1.</_>
        <_>
          5 11 5 1 3.</_></rects>
      <tilted>0</tilted></_>
    <_>
      <rects>
        <_>
          5 19 19 3 -1.</_>
        <_>
          5 20 19 1 3.</_></rects>
      <tilted>0</tilted></_>
    <_>
      <rects>
        <_>
          5 23 3 1 -1.</_>
        <_>
          6 23 1 1 3.</_></rects>
      <tilted>0</tilted></_>
    <_>
      <rects>
        <_>
          5 23 18 1 -1.</_>
        <_>
          14 23 9 1 2.</_></rects>
      <tilted>0</tilted></_>
    <_>
      <rects>
        <_>
          6 0 5 6 -1.</_>
        <_>
          6 2 5 2 3.</_></rects>
      <tilted>0</tilted></_>
    <_>
      <rects>
        <_>
          6 4 2 4 -1.</_>
        <_>
          6 4 1 2 2.</_>
        <_>
          7 6 1 2 2.</_></rects>
      <tilted>0</tilted></_>
    <_>
      <rects>
        <_>
          6 9 3 2 -1.</_>
        <_>
          6 10 3 1 2.</_></rects>
      <tilted>0</tilted></_>
    <_>
      <rects>
        <_>
          6 14 7 3 -1.</_>
        <_>
          6 15 7 1 3.</_></rects>
      <tilted>0</tilted></_>
    <_>
      <rects>
        <_>
          6 15 1 6 -1.</_>
        <_>
          6 18 1 3 2.</_></rects>
      <tilted>0</tilted></_>
    <_>
      <rects>
        <_>
          6 18 5 2 -1.</_>
        <_>
          6 19 5 1 2.</_></rects>
      <tilted>0</tilted></_>
    <_>
      <rects>
        <_>
          6 23 14 1 -1.</_>
        <_>
          13 23 7 1 2.</_></rects>
      <tilted>0</tilted></_>
    <_>
      <rects>
        <_>
          7 0 3 8 -1.</_>
        <_>
          7 4 3 4 2.</_></rects>
      <tilted>0</tilted></_>
    <_>
      <rects>
        <_>
          7 0 14 1 -1.</_>
        <_>
          14 0 7 1 2.</_></rects>
      <tilted>0</tilted></_>
    <_>
      <rects>
        <_>
          7 1 1 2 -1.</_>
        <_>
          7 2 1 1 2.</_></rects>
      <tilted>0</tilted></_>
    <_>
      <rects>
        <_>
          7 4 6 4 -1.</_>
        <_>
          7 4 3 2 2.</_>
        <_>
          10 6 3 2 2.</_></rects>
      <tilted>0</tilted></_>
    <_>
      <rects>
        <_>
          7 11 5 3 -1.</_>
        <_>
          7 12 5 1 3.</_></rects>
      <tilted>0</tilted></_>
    <_>
      <rects>
        <_>
          7 14 1 2 -1.</_>
        <_>
          7 15 1 1 2.</_></rects>
      <tilted>0</tilted></_>
    <_>
      <rects>
        <_>
          7 17 3 6 -1.</_>
        <_>
          7 20 3 3 2.</_></rects>
      <tilted>0</tilted></_>
    <_>
      <rects>
        <_>
          7 22 8 2 -1.</_>
        <_>
          7 22 4 1 2.</_>
        <_>
          11 23 4 1 2.</_></rects>
      <tilted>0</tilted></_>
    <_>
      <rects>
        <_>
          8 5 5 2 -1.</_>
        <_>
          8 6 5 1 2.</_></rects>
      <tilted>0</tilted></_>
    <_>
      <rects>
        <_>
          8 16 3 3 -1.</_>
        <_>
          8 17 3 1 3.</_></rects>
      <tilted>0</tilted></_>
    <_>
      <rects>
        <_>
          8 19 2 3 -1.</_>
        <_>
          8 20 2 1 3.</_></rects>
      <tilted>0</tilted></_>
    <_>
      <rects>
        <_>
          8 23 12 1 -1.</_>
        <_>
          12 23 4 1 3.</_></rects>
      <tilted>0</tilted></_>
    <_>
      <rects>
        <_>
          9 0 3 1 -1.</_>
        <_>
          10 0 1 1 3.</_></rects>
      <tilted>0</tilted></_>
    <_>
      <rects>
        <_>
          9 0 4 1 -1.</_>
        <_>
          11 0 2 1 2.</_></rects>
      <tilted>0</tilted></_>
    <_>
      <rects>
        <_>
          9 0 6 1 -1.</_>
        <_>
          12 0 3 1 2.</_></rects>
      <tilted>0</tilted></_>
    <_>
      <rects>
        <_>
          9 4 6 11 -1.</_>
        <_>
          11 4 2 11 3.</_></rects>
      <tilted>0</tilted></_>
    <_>
      <rects>
        <_>
          9 4 15 14 -1.</_>
        <_>
          14 4 5 14 3.</_></rects>
      <tilted>0</tilted></_>
    <_>
      <rects>
        <_>
          9 6 3 3 -1.</_>
        <_>
          10 6 1 3 3.</_></rects>
      <tilted>0</tilted></_>
    <_>
      <rects>
        <_>
          9 11 4 1 -1.</_>
        <_>
          11 11 2 1 2.</_></rects>
      <tilted>0</tilted></_>
    <_>
      <rects>
        <_>
          9 15 2 2 -1.</_>
        <_>
          9 15 1 1 2.</_>
        <_>
          10 16 1 1 2.</_></rects>
      <tilted>0</tilted></_>
    <_>
      <rects>
        <_>
          9 15 6 6 -1.</_>
        <_>
          9 18 6 3 2.</_></rects>
      <tilted>0</tilted></_>
    <_>
      <rects>
        <_>
          9 16 3 1 -1.</_>
        <_>
          10 16 1 1 3.</_></rects>
      <tilted>0</tilted></_>
    <_>
      <rects>
        <_>
          9 20 3 4 -1.</_>
        <_>
          9 22 3 2 2.</_></rects>
      <tilted>0</tilted></_>
    <_>
      <rects>
        <_>
          9 23 14 1 -1.</_>
        <_>
          16 23 7 1 2.</_></rects>
      <tilted>0</tilted></_>
    <_>
      <rects>
        <_>
          10 0 9 1 -1.</_>
        <_>
          13 0 3 1 3.</_></rects>
      <tilted>0</tilted></_>
    <_>
      <rects>
        <_>
          10 10 1 3 -1.</_>
        <_>
          10 11 1 1 3.</_></rects>
      <tilted>0</tilted></_>
    <_>
      <rects>
        <_>
          10 15 2 3 -1.</_>
        <_>
          10 16 2 1 3.</_></rects>
      <tilted>0</tilted></_>
    <_>
      <rects>
        <_>
          10 21 3 2 -1.</_>
        <_>
          11 21 1 2 3.</_></rects>
      <tilted>0</tilted></_>
    <_>
      <rects>
        <_>
          11 0 1 4 -1.</_>
        <_>
          11 2 1 2 2.</_></rects>
      <tilted>0</tilted></_>
    <_>
      <rects>
        <_>
          11 0 8 1 -1.</_>
        <_>
          15 0 4 1 2.</_></rects>
      <tilted>0</tilted></_>
    <_>
      <rects>
        <_>
          11 0 12 18 -1.</_>
        <_>
          15 0 4 18 3.</_></rects>
      <tilted>0</tilted></_>
    <_>
      <rects>
        <_>
          11 1 12 3 -1.</_>
        <_>
          11 2 12 1 3.</_></rects>
      <tilted>0</tilted></_>
    <_>
      <rects>
        <_>
          11 2 6 18 -1.</_>
        <_>
          14 2 3 18 2.</_></rects>
      <tilted>0</tilted></_>
    <_>
      <rects>
        <_>
          11 4 3 11 -1.</_>
        <_>
          12 4 1 11 3.</_></rects>
      <tilted>0</tilted></_>
    <_>
      <rects>
        <_>
          11 12 1 2 -1.</_>
        <_>
          11 13 1 1 2.</_></rects>
      <tilted>0</tilted></_>
    <_>
      <rects>
        <_>
          11 12 6 10 -1.</_>
        <_>
          13 12 2 10 3.</_></rects>
      <tilted>0</tilted></_>
    <_>
      <rects>
        <_>
          12 0 9 1 -1.</_>
        <_>
          15 0 3 1 3.</_></rects>
      <tilted>0</tilted></_>
    <_>
      <rects>
        <_>
          12 1 6 1 -1.</_>
        <_>
          14 1 2 1 3.</_></rects>
      <tilted>0</tilted></_>
    <_>
      <rects>
        <_>
          12 9 12 4 -1.</_>
        <_>
          16 9 4 4 3.</_></rects>
      <tilted>0</tilted></_>
    <_>
      <rects>
        <_>
          12 12 2 1 -1.</_>
        <_>
          13 12 1 1 2.</_></rects>
      <tilted>0</tilted></_>
    <_>
      <rects>
        <_>
          12 13 12 1 -1.</_>
        <_>
          16 13 4 1 3.</_></rects>
      <tilted>0</tilted></_>
    <_>
      <rects>
        <_>
          12 15 2 2 -1.</_>
        <_>
          12 15 1 1 2.</_>
        <_>
          13 16 1 1 2.</_></rects>
      <tilted>0</tilted></_>
    <_>
      <rects>
        <_>
          13 1 5 3 -1.</_>
        <_>
          13 2 5 1 3.</_></rects>
      <tilted>0</tilted></_>
    <_>
      <rects>
        <_>
          13 2 7 6 -1.</_>
        <_>
          13 4 7 2 3.</_></rects>
      <tilted>0</tilted></_>
    <_>
      <rects>
        <_>
          13 4 4 2 -1.</_>
        <_>
          13 5 4 1 2.</_></rects>
      <tilted>0</tilted></_>
    <_>
      <rects>
        <_>
          13 5 4 2 -1.</_>
        <_>
          13 6 4 1 2.</_></rects>
      <tilted>0</tilted></_>
    <_>
      <rects>
        <_>
          13 9 2 2 -1.</_>
        <_>
          13 9 1 1 2.</_>
        <_>
          14 10 1 1 2.</_></rects>
      <tilted>0</tilted></_>
    <_>
      <rects>
        <_>
          13 10 10 2 -1.</_>
        <_>
          13 11 10 1 2.</_></rects>
      <tilted>0</tilted></_>
    <_>
      <rects>
        <_>
          13 11 2 2 -1.</_>
        <_>
          13 11 1 1 2.</_>
        <_>
          14 12 1 1 2.</_></rects>
      <tilted>0</tilted></_>
    <_>
      <rects>
        <_>
          13 15 1 6 -1.</_>
        <_>
          13 17 1 2 3.</_></rects>
      <tilted>0</tilted></_>
    <_>
      <rects>
        <_>
          13 22 10 2 -1.</_>
        <_>
          13 23 10 1 2.</_></rects>
      <tilted>0</tilted></_>
    <_>
      <rects>
        <_>
          14 0 10 1 -1.</_>
        <_>
          19 0 5 1 2.</_></rects>
      <tilted>0</tilted></_>
    <_>
      <rects>
        <_>
          14 5 3 6 -1.</_>
        <_>
          15 5 1 6 3.</_></rects>
      <tilted>0</tilted></_>
    <_>
      <rects>
        <_>
          15 6 1 6 -1.</_>
        <_>
          15 8 1 2 3.</_></rects>
      <tilted>0</tilted></_>
    <_>
      <rects>
        <_>
          15 9 9 7 -1.</_>
        <_>
          18 9 3 7 3.</_></rects>
      <tilted>0</tilted></_>
    <_>
      <rects>
        <_>
          15 16 5 6 -1.</_>
        <_>
          15 18 5 2 3.</_></rects>
      <tilted>0</tilted></_>
    <_>
      <rects>
        <_>
          16 0 6 1 -1.</_>
        <_>
          19 0 3 1 2.</_></rects>
      <tilted>0</tilted></_>
    <_>
      <rects>
        <_>
          16 0 8 1 -1.</_>
        <_>
          20 0 4 1 2.</_></rects>
      <tilted>0</tilted></_>
    <_>
      <rects>
        <_>
          16 3 3 11 -1.</_>
        <_>
          17 3 1 11 3.</_></rects>
      <tilted>0</tilted></_>
    <_>
      <rects>
        <_>
          16 5 8 18 -1.</_>
        <_>
          20 5 4 18 2.</_></rects>
      <tilted>0</tilted></_>
    <_>
      <rects>
        <_>
          16 8 3 7 -1.</_>
        <_>
          17 8 1 7 3.</_></rects>
      <tilted>0</tilted></_>
    <_>
      <rects>
        <_>
          16 15 2 2 -1.</_>
        <_>
          16 16 2 1 2.</_></rects>
      <tilted>0</tilted></_>
    <_>
      <rects>
        <_>
          18 0 4 1 -1.</_>
        <_>
          20 0 2 1 2.</_></rects>
      <tilted>0</tilted></_>
    <_>
      <rects>
        <_>
          18 2 4 5 -1.</_>
        <_>
          20 2 2 5 2.</_></rects>
      <tilted>0</tilted></_>
    <_>
      <rects>
        <_>
          18 2 6 19 -1.</_>
        <_>
          21 2 3 19 2.</_></rects>
      <tilted>0</tilted></_>
    <_>
      <rects>
        <_>
          18 3 6 19 -1.</_>
        <_>
          20 3 2 19 3.</_></rects>
      <tilted>0</tilted></_>
    <_>
      <rects>
        <_>
          18 7 6 1 -1.</_>
        <_>
          20 7 2 1 3.</_></rects>
      <tilted>0</tilted></_>
    <_>
      <rects>
        <_>
          18 12 6 9 -1.</_>
        <_>
          20 12 2 9 3.</_></rects>
      <tilted>0</tilted></_>
    <_>
      <rects>
        <_>
          18 13 2 2 -1.</_>
        <_>
          18 14 2 1 2.</_></rects>
      <tilted>0</tilted></_>
    <_>
      <rects>
        <_>
          18 13 2 6 -1.</_>
        <_>
          18 15 2 2 3.</_></rects>
      <tilted>0</tilted></_>
    <_>
      <rects>
        <_>
          18 14 6 1 -1.</_>
        <_>
          20 14 2 1 3.</_></rects>
      <tilted>0</tilted></_>
    <_>
      <rects>
        <_>
          18 23 6 1 -1.</_>
        <_>
          20 23 2 1 3.</_></rects>
      <tilted>0</tilted></_>
    <_>
      <rects>
        <_>
          19 0 4 2 -1.</_>
        <_>
          21 0 2 2 2.</_></rects>
      <tilted>0</tilted></_>
    <_>
      <rects>
        <_>
          20 3 4 14 -1.</_>
        <_>
          20 10 4 7 2.</_></rects>
      <tilted>0</tilted></_>
    <_>
      <rects>
        <_>
          21 1 3 23 -1.</_>
        <_>
          22 1 1 23 3.</_></rects>
      <tilted>0</tilted></_>
    <_>
      <rects>
        <_>
          21 23 2 1 -1.</_>
        <_>
          22 23 1 1 2.</_></rects>
      <tilted>0</tilted></_>
    <_>
      <rects>
        <_>
          22 3 2 12 -1.</_>
        <_>
          22 7 2 4 3.</_></rects>
      <tilted>0</tilted></_>
    <_>
      <rects>
        <_>
          22 4 2 19 -1.</_>
        <_>
          23 4 1 19 2.</_></rects>
      <tilted>0</tilted></_>
    <_>
      <rects>
        <_>
          22 5 2 14 -1.</_>
        <_>
          22 12 2 7 2.</_></rects>
      <tilted>0</tilted></_>
    <_>
      <rects>
        <_>
          22 13 2 2 -1.</_>
        <_>
          22 13 1 1 2.</_>
        <_>
          23 14 1 1 2.</_></rects>
      <tilted>0</tilted></_>
    <_>
      <rects>
        <_>
          22 20 2 3 -1.</_>
        <_>
          22 21 2 1 3.</_></rects>
      <tilted>0</tilted></_>
    <_>
      <rects>
        <_>
          23 3 1 3 -1.</_>
        <_>
          23 4 1 1 3.</_></rects>
      <tilted>0</tilted></_>
    <_>
      <rects>
        <_>
          23 6 1 9 -1.</_>
        <_>
          23 9 1 3 3.</_></rects>
      <tilted>0</tilted></_>
    <_>
      <rects>
        <_>
          23 8 1 3 -1.</_>
        <_>
          23 9 1 1 3.</_></rects>
      <tilted>0</tilted></_>
    <_>
      <rects>
        <_>
          23 10 1 10 -1.</_>
        <_>
          23 15 1 5 2.</_></rects>
      <tilted>0</tilted></_>
    <_>
      <rects>
        <_>
          23 11 1 2 -1.</_>
        <_>
          23 12 1 1 2.</_></rects>
      <tilted>0</tilted></_>
    <_>
      <rects>
        <_>
          23 12 1 6 -1.</_>
        <_>
          23 14 1 2 3.</_></rects>
      <tilted>0</tilted></_></features></cascade>
</opencv_storage>
