<?xml version="1.0"?>
<opencv_storage>
<cascade>
  <stageType>BOOST</stageType>
  <featureType>HAAR</featureType>
  <height>24</height>
  <width>24</width>
  <stageParams>
    <boostType>GAB</boostType>
    <minHitRate>9.9500000476837158e-01</minHitRate>
    <maxFalseAlarm>5.0000000000000000e-01</maxFalseAlarm>
    <weightTrimRate>9.4999998807907104e-01</weightTrimRate>
    <maxDepth>1</maxDepth>
    <maxWeakCount>100</maxWeakCount></stageParams>
  <featureParams>
    <maxCatCount>0</maxCatCount>
    <featSize>1</featSize>
    <mode>BASIC</mode></featureParams>
  <stageNum>15</stageNum>
  <stages>
    <!-- stage 0 -->
    <_>
      <maxWeakCount>6</maxWeakCount>
      <stageThreshold>-1.0573873519897461e+00</stageThreshold>
      <weakClassifiers>
        <_>
          <internalNodes>
            0 -1 81 -4.6596664935350418e-02</internalNodes>
          <leafValues>
            8.5585588216781616e-01 -4.5564517378807068e-01</leafValues></_>
        <_>
          <internalNodes>
            0 -1 22 2.2065950557589531e-02</internalNodes>
          <leafValues>
            -3.1425139307975769e-01 6.6601008176803589e-01</leafValues></_>
        <_>
          <internalNodes>
            0 -1 41 1.1527859896887094e-04</internalNodes>
          <leafValues>
            3.8748395442962646e-01 -6.2048918008804321e-01</leafValues></_>
        <_>
          <internalNodes>
            0 -1 3 -2.1336607635021210e-02</internalNodes>
          <leafValues>
            7.9824060201644897e-01 -2.4467016756534576e-01</leafValues></_>
        <_>
          <internalNodes>
            0 -1 34 2.5592260062694550e-03</internalNodes>
          <leafValues>
            2.5539606809616089e-01 -8.5861265659332275e-01</leafValues></_>
        <_>
          <internalNodes>
            0 -1 24 -1.5937581192702055e-03</internalNodes>
          <leafValues>
            -6.4035415649414063e-01 3.2227247953414917e-01</leafValues></_></weakClassifiers></_>
    <!-- stage 1 -->
    <_>
      <maxWeakCount>5</maxWeakCount>
      <stageThreshold>-7.0299011468887329e-01</stageThreshold>
      <weakClassifiers>
        <_>
          <internalNodes>
            0 -1 0 -3.5696070641279221e-02</internalNodes>
          <leafValues>
            8.0165290832519531e-01 -4.6913579106330872e-01</leafValues></_>
        <_>
          <internalNodes>
            0 -1 20 -2.8225813060998917e-02</internalNodes>
          <leafValues>
            6.9952327013015747e-01 -2.9921039938926697e-01</leafValues></_>
        <_>
          <internalNodes>
            0 -1 29 -3.9999848231673241e-03</internalNodes>
          <leafValues>
            -7.3315137624740601e-01 2.5691509246826172e-01</leafValues></_>
        <_>
          <internalNodes>
            0 -1 44 2.0021628588438034e-03</internalNodes>
          <leafValues>
            2.1098348498344421e-01 -8.8195449113845825e-01</leafValues></_>
        <_>
          <internalNodes>
            0 -1 11 -1.0807128250598907e-01</internalNodes>
          <leafValues>
            7.6084595918655396e-01 -3.0833819508552551e-01</leafValues></_></weakClassifiers></_>
    <!-- stage 2 -->
    <_>
      <maxWeakCount>5</maxWeakCount>
      <stageThreshold>-5.5801290273666382e-01</stageThreshold>
      <weakClassifiers>
        <_>
          <internalNodes>
            0 -1 4 -3.7596352398395538e-02</internalNodes>
          <leafValues>
            7.1641790866851807e-01 -4.7991544008255005e-01</leafValues></_>
        <_>
          <internalNodes>
            0 -1 46 -7.8302644193172455e-02</internalNodes>
          <leafValues>
            8.9493411779403687e-01 -2.0396624505519867e-01</leafValues></_>
        <_>
          <internalNodes>
            0 -1 62 -6.9452837109565735e-02</internalNodes>
          <leafValues>
            7.6436918973922729e-01 -2.3812413215637207e-01</leafValues></_>
        <_>
          <internalNodes>
            0 -1 76 -2.6730708777904510e-03</internalNodes>
          <leafValues>
            5.9032279253005981e-01 -3.5405156016349792e-01</leafValues></_>
        <_>
          <internalNodes>
            0 -1 48 -1.5006463043391705e-02</internalNodes>
          <leafValues>
            7.1804445981979370e-01 -2.1482452750205994e-01</leafValues></_></weakClassifiers></_>
    <!-- stage 3 -->
    <_>
      <maxWeakCount>6</maxWeakCount>
      <stageThreshold>-4.1249319911003113e-01</stageThreshold>
      <weakClassifiers>
        <_>
          <internalNodes>
            0 -1 82 -5.4157443344593048e-02</internalNodes>
          <leafValues>
            7.3214286565780640e-01 -4.3030303716659546e-01</leafValues></_>
        <_>
          <internalNodes>
            0 -1 80 6.3465428538620472e-03</internalNodes>
          <leafValues>
            1.7238561809062958e-01 -9.3952721357345581e-01</leafValues></_>
        <_>
          <internalNodes>
            0 -1 16 6.2869759276509285e-03</internalNodes>
          <leafValues>
            1.8875795602798462e-01 -8.0948573350906372e-01</leafValues></_>
        <_>
          <internalNodes>
            0 -1 37 8.0722607672214508e-03</internalNodes>
          <leafValues>
            -3.0669081211090088e-01 6.8655657768249512e-01</leafValues></_>
        <_>
          <internalNodes>
            0 -1 27 -1.3393113389611244e-02</internalNodes>
          <leafValues>
            6.2935084104537964e-01 -2.8190237283706665e-01</leafValues></_>
        <_>
          <internalNodes>
            0 -1 9 -2.9701180756092072e-03</internalNodes>
          <leafValues>
            -9.4840961694717407e-01 2.5025570392608643e-01</leafValues></_></weakClassifiers></_>
    <!-- stage 4 -->
    <_>
      <maxWeakCount>6</maxWeakCount>
      <stageThreshold>-5.9991627931594849e-01</stageThreshold>
      <weakClassifiers>
        <_>
          <internalNodes>
            0 -1 7 -3.4530393779277802e-02</internalNodes>
          <leafValues>
            5.2702701091766357e-01 -4.5533770322799683e-01</leafValues></_>
        <_>
          <internalNodes>
            0 -1 59 1.4284744393080473e-03</internalNodes>
          <leafValues>
            -3.2820808887481689e-01 5.7374054193496704e-01</leafValues></_>
        <_>
          <internalNodes>
            0 -1 2 3.3009669277817011e-03</internalNodes>
          <leafValues>
            1.9221407175064087e-01 -9.2417186498641968e-01</leafValues></_>
        <_>
          <internalNodes>
            0 -1 42 2.1512270905077457e-03</internalNodes>
          <leafValues>
            -2.7629408240318298e-01 6.7008978128433228e-01</leafValues></_>
        <_>
          <internalNodes>
            0 -1 31 7.7191637828946114e-03</internalNodes>
          <leafValues>
            -2.3547767102718353e-01 7.4684894084930420e-01</leafValues></_>
        <_>
          <internalNodes>
            0 -1 52 4.3398742564022541e-03</internalNodes>
          <leafValues>
            -3.0917549133300781e-01 5.8003669977188110e-01</leafValues></_></weakClassifiers></_>
    <!-- stage 5 -->
    <_>
      <maxWeakCount>5</maxWeakCount>
      <stageThreshold>-5.7185167074203491e-01</stageThreshold>
      <weakClassifiers>
        <_>
          <internalNodes>
            0 -1 83 -4.4147826731204987e-02</internalNodes>
          <leafValues>
            7.3333334922790527e-01 -4.4969198107719421e-01</leafValues></_>
        <_>
          <internalNodes>
            0 -1 53 -6.1234002932906151e-03</internalNodes>
          <leafValues>
            -7.6484924554824829e-01 2.7702456712722778e-01</leafValues></_>
        <_>
          <internalNodes>
            0 -1 63 -3.2231127843260765e-03</internalNodes>
          <leafValues>
            6.5355193614959717e-01 -2.9846325516700745e-01</leafValues></_>
        <_>
          <internalNodes>
            0 -1 24 -2.6413858868181705e-03</internalNodes>
          <leafValues>
            -6.6030770540237427e-01 3.1072273850440979e-01</leafValues></_>
        <_>
          <internalNodes>
            0 -1 77 -4.2133228853344917e-03</internalNodes>
          <leafValues>
            6.3043010234832764e-01 -3.0167168378829956e-01</leafValues></_></weakClassifiers></_>
    <!-- stage 6 -->
    <_>
      <maxWeakCount>5</maxWeakCount>
      <stageThreshold>-1.0408695936203003e+00</stageThreshold>
      <weakClassifiers>
        <_>
          <internalNodes>
            0 -1 23 -3.8327991962432861e-02</internalNodes>
          <leafValues>
            6.6000002622604370e-01 -3.8856014609336853e-01</leafValues></_>
        <_>
          <internalNodes>
            0 -1 18 -1.2510898523032665e-02</internalNodes>
          <leafValues>
            -8.7021678686141968e-01 1.9638489186763763e-01</leafValues></_>
        <_>
          <internalNodes>
            0 -1 10 1.6003397759050131e-03</internalNodes>
          <leafValues>
            1.4833208918571472e-01 -8.5757946968078613e-01</leafValues></_>
        <_>
          <internalNodes>
            0 -1 58 1.2048719509039074e-04</internalNodes>
          <leafValues>
            -3.7549230456352234e-01 4.1609856486320496e-01</leafValues></_>
        <_>
          <internalNodes>
            0 -1 8 1.9886128604412079e-02</internalNodes>
          <leafValues>
            2.9347175359725952e-01 -6.6418278217315674e-01</leafValues></_></weakClassifiers></_>
    <!-- stage 7 -->
    <_>
      <maxWeakCount>8</maxWeakCount>
      <stageThreshold>-8.6023360490798950e-01</stageThreshold>
      <weakClassifiers>
        <_>
          <internalNodes>
            0 -1 54 -8.8472745846956968e-04</internalNodes>
          <leafValues>
            3.7313431501388550e-01 -5.0738918781280518e-01</leafValues></_>
        <_>
          <internalNodes>
            0 -1 47 4.4100655941292644e-04</internalNodes>
          <leafValues>
            -3.4946125745773315e-01 4.8592165112495422e-01</leafValues></_>
        <_>
          <internalNodes>
            0 -1 67 8.9667160063982010e-03</internalNodes>
          <leafValues>
            -2.9541361331939697e-01 6.0583680868148804e-01</leafValues></_>
        <_>
          <internalNodes>
            0 -1 72 -2.2194108460098505e-03</internalNodes>
          <leafValues>
            5.5627864599227905e-01 -2.6446470618247986e-01</leafValues></_>
        <_>
          <internalNodes>
            0 -1 68 -3.3166096545755863e-03</internalNodes>
          <leafValues>
            6.7414975166320801e-01 -2.0866531133651733e-01</leafValues></_>
        <_>
          <internalNodes>
            0 -1 15 -1.2986517976969481e-03</internalNodes>
          <leafValues>
            4.6737056970596313e-01 -3.8094756007194519e-01</leafValues></_>
        <_>
          <internalNodes>
            0 -1 50 -3.6959149874746799e-03</internalNodes>
          <leafValues>
            6.3534963130950928e-01 -2.3438563942909241e-01</leafValues></_>
        <_>
          <internalNodes>
            0 -1 78 -1.5447819605469704e-03</internalNodes>
          <leafValues>
            5.5975031852722168e-01 -2.8017953038215637e-01</leafValues></_></weakClassifiers></_>
    <!-- stage 8 -->
    <_>
      <maxWeakCount>7</maxWeakCount>
      <stageThreshold>-1.1085517406463623e+00</stageThreshold>
      <weakClassifiers>
        <_>
          <internalNodes>
            0 -1 91 -4.5018515083938837e-04</internalNodes>
          <leafValues>
            -9.0399998426437378e-01 -3.7344399839639664e-02</leafValues></_>
        <_>
          <internalNodes>
            0 -1 13 -3.2059210352599621e-03</internalNodes>
          <leafValues>
            -6.7144137620925903e-01 1.4780889451503754e-01</leafValues></_>
        <_>
          <internalNodes>
            0 -1 45 7.8266899799928069e-04</internalNodes>
          <leafValues>
            2.1513283252716064e-01 -6.3038372993469238e-01</leafValues></_>
        <_>
          <internalNodes>
            0 -1 74 6.2296551186591387e-04</internalNodes>
          <leafValues>
            1.6522963345050812e-01 -7.9858863353729248e-01</leafValues></_>
        <_>
          <internalNodes>
            0 -1 43 -9.5186005637515336e-05</internalNodes>
          <leafValues>
            -6.0755407810211182e-01 1.9788110256195068e-01</leafValues></_>
        <_>
          <internalNodes>
            0 -1 21 -1.5928696841001511e-02</internalNodes>
          <leafValues>
            -6.1877512931823730e-01 2.1489953994750977e-01</leafValues></_>
        <_>
          <internalNodes>
            0 -1 57 -4.6090479008853436e-04</internalNodes>
          <leafValues>
            3.6742907762527466e-01 -3.6120760440826416e-01</leafValues></_></weakClassifiers></_>
    <!-- stage 9 -->
    <_>
      <maxWeakCount>7</maxWeakCount>
      <stageThreshold>-7.8084087371826172e-01</stageThreshold>
      <weakClassifiers>
        <_>
          <internalNodes>
            0 -1 33 1.3335334369912744e-03</internalNodes>
          <leafValues>
            4.5871557667851448e-03 -7.7777779102325439e-01</leafValues></_>
        <_>
          <internalNodes>
            0 -1 87 -3.5967086441814899e-03</internalNodes>
          <leafValues>
            -6.6091269254684448e-01 2.0944324135780334e-01</leafValues></_>
        <_>
          <internalNodes>
            0 -1 88 -5.8966455981135368e-05</internalNodes>
          <leafValues>
            -6.4498949050903320e-01 2.3637403547763824e-01</leafValues></_>
        <_>
          <internalNodes>
            0 -1 60 1.3276156969368458e-03</internalNodes>
          <leafValues>
            1.2146116793155670e-01 -9.1957497596740723e-01</leafValues></_>
        <_>
          <internalNodes>
            0 -1 61 -2.8034270508214831e-04</internalNodes>
          <leafValues>
            -5.8174300193786621e-01 2.1468541026115417e-01</leafValues></_>
        <_>
          <internalNodes>
            0 -1 86 1.3431685045361519e-02</internalNodes>
          <leafValues>
            -2.3050400614738464e-01 6.5000021457672119e-01</leafValues></_>
        <_>
          <internalNodes>
            0 -1 65 -3.8445862010121346e-03</internalNodes>
          <leafValues>
            4.4270595908164978e-01 -2.9585179686546326e-01</leafValues></_></weakClassifiers></_>
    <!-- stage 10 -->
    <_>
      <maxWeakCount>5</maxWeakCount>
      <stageThreshold>-6.0480576753616333e-01</stageThreshold>
      <weakClassifiers>
        <_>
          <internalNodes>
            0 -1 9 2.6831042487174273e-04</internalNodes>
          <leafValues>
            9.6418730914592743e-02 -6.8032789230346680e-01</leafValues></_>
        <_>
          <internalNodes>
            0 -1 14 4.7224454465322196e-04</internalNodes>
          <leafValues>
            1.9437550008296967e-01 -6.1685949563980103e-01</leafValues></_>
        <_>
          <internalNodes>
            0 -1 32 -3.0606825021095574e-04</internalNodes>
          <leafValues>
            -8.1976413726806641e-01 1.5260392427444458e-01</leafValues></_>
        <_>
          <internalNodes>
            0 -1 32 2.5420048041269183e-04</internalNodes>
          <leafValues>
            1.9512575864791870e-01 -6.0601276159286499e-01</leafValues></_>
        <_>
          <internalNodes>
            0 -1 56 -2.0788009278476238e-03</internalNodes>
          <leafValues>
            5.0470376014709473e-01 -2.7096164226531982e-01</leafValues></_></weakClassifiers></_>
    <!-- stage 11 -->
    <_>
      <maxWeakCount>6</maxWeakCount>
      <stageThreshold>-5.8582538366317749e-01</stageThreshold>
      <weakClassifiers>
        <_>
          <internalNodes>
            0 -1 6 -8.4393739234656096e-04</internalNodes>
          <leafValues>
            -7.1962618827819824e-01 5.8524172753095627e-02</leafValues></_>
        <_>
          <internalNodes>
            0 -1 55 7.1617570938542485e-04</internalNodes>
          <leafValues>
            -2.7277043461799622e-01 6.0606276988983154e-01</leafValues></_>
        <_>
          <internalNodes>
            0 -1 89 -1.6088236588984728e-03</internalNodes>
          <leafValues>
            -6.0984987020492554e-01 2.4644139409065247e-01</leafValues></_>
        <_>
          <internalNodes>
            0 -1 26 -1.4582334551960230e-03</internalNodes>
          <leafValues>
            -5.8609318733215332e-01 2.7780500054359436e-01</leafValues></_>
        <_>
          <internalNodes>
            0 -1 35 7.2352960705757141e-04</internalNodes>
          <leafValues>
            2.8591632843017578e-01 -5.3694796562194824e-01</leafValues></_>
        <_>
          <internalNodes>
            0 -1 25 4.7349268570542336e-03</internalNodes>
          <leafValues>
            -2.9677876830101013e-01 4.9741369485855103e-01</leafValues></_></weakClassifiers></_>
    <!-- stage 12 -->
    <_>
      <maxWeakCount>8</maxWeakCount>
      <stageThreshold>-8.0382788181304932e-01</stageThreshold>
      <weakClassifiers>
        <_>
          <internalNodes>
            0 -1 73 5.2312045590952039e-04</internalNodes>
          <leafValues>
            -4.9751242995262146e-01 3.3658537268638611e-01</leafValues></_>
        <_>
          <internalNodes>
            0 -1 12 -5.9416570002213120e-04</internalNodes>
          <leafValues>
            3.7560415267944336e-01 -3.7568646669387817e-01</leafValues></_>
        <_>
          <internalNodes>
            0 -1 51 4.2604273185133934e-03</internalNodes>
          <leafValues>
            -2.9276472330093384e-01 4.6987965703010559e-01</leafValues></_>
        <_>
          <internalNodes>
            0 -1 75 4.2573407292366028e-02</internalNodes>
          <leafValues>
            -2.4424429237842560e-01 6.3548815250396729e-01</leafValues></_>
        <_>
          <internalNodes>
            0 -1 64 -1.8220072888652794e-05</internalNodes>
          <leafValues>
            4.6096318960189819e-01 -2.7233418822288513e-01</leafValues></_>
        <_>
          <internalNodes>
            0 -1 71 -1.3768905773758888e-05</internalNodes>
          <leafValues>
            3.7400284409523010e-01 -3.2178488373756409e-01</leafValues></_>
        <_>
          <internalNodes>
            0 -1 66 1.5013328520581126e-03</internalNodes>
          <leafValues>
            2.2343812882900238e-01 -5.6362086534500122e-01</leafValues></_>
        <_>
          <internalNodes>
            0 -1 28 1.4805642422288656e-04</internalNodes>
          <leafValues>
            -4.1625574231147766e-01 3.6460235714912415e-01</leafValues></_></weakClassifiers></_>
    <!-- stage 13 -->
    <_>
      <maxWeakCount>9</maxWeakCount>
      <stageThreshold>-9.6912992000579834e-01</stageThreshold>
      <weakClassifiers>
        <_>
          <internalNodes>
            0 -1 1 -1.0422165691852570e-01</internalNodes>
          <leafValues>
            8.0722892284393311e-01 -3.7786260247230530e-01</leafValues></_>
        <_>
          <internalNodes>
            0 -1 36 -4.6976085286587477e-05</internalNodes>
          <leafValues>
            -6.0475087165832520e-01 2.1595096588134766e-01</leafValues></_>
        <_>
          <internalNodes>
            0 -1 5 8.0044157803058624e-03</internalNodes>
          <leafValues>
            -3.9422106742858887e-01 4.2425170540809631e-01</leafValues></_>
        <_>
          <internalNodes>
            0 -1 70 -3.3034475054591894e-03</internalNodes>
          <leafValues>
            4.7943854331970215e-01 -2.2547128796577454e-01</leafValues></_>
        <_>
          <internalNodes>
            0 -1 39 7.3237367905676365e-04</internalNodes>
          <leafValues>
            2.8707167506217957e-01 -4.9092620611190796e-01</leafValues></_>
        <_>
          <internalNodes>
            0 -1 38 1.9383783219382167e-03</internalNodes>
          <leafValues>
            -3.1656301021575928e-01 4.5462486147880554e-01</leafValues></_>
        <_>
          <internalNodes>
            0 -1 30 1.1728231329470873e-03</internalNodes>
          <leafValues>
            -2.4072611331939697e-01 4.7845086455345154e-01</leafValues></_>
        <_>
          <internalNodes>
            0 -1 85 -2.4113599210977554e-03</internalNodes>
          <leafValues>
            3.9856529235839844e-01 -3.2129010558128357e-01</leafValues></_>
        <_>
          <internalNodes>
            0 -1 69 1.5048736240714788e-03</internalNodes>
          <leafValues>
            -2.9729482531547546e-01 4.5349559187889099e-01</leafValues></_></weakClassifiers></_>
    <!-- stage 14 -->
    <_>
      <maxWeakCount>7</maxWeakCount>
      <stageThreshold>-8.0738985538482666e-01</stageThreshold>
      <weakClassifiers>
        <_>
          <internalNodes>
            0 -1 90 -2.9324815841391683e-04</internalNodes>
          <leafValues>
            -6.7226892709732056e-01 7.8590787947177887e-02</leafValues></_>
        <_>
          <internalNodes>
            0 -1 17 -2.3215787950903177e-03</internalNodes>
          <leafValues>
            -7.1107113361358643e-01 1.3177424669265747e-01</leafValues></_>
        <_>
          <internalNodes>
            0 -1 19 -1.0612921789288521e-02</internalNodes>
          <leafValues>
            4.5262485742568970e-01 -2.5931909680366516e-01</leafValues></_>
        <_>
          <internalNodes>
            0 -1 49 1.9712902605533600e-02</internalNodes>
          <leafValues>
            -2.2233350574970245e-01 5.1864469051361084e-01</leafValues></_>
        <_>
          <internalNodes>
            0 -1 40 1.2491321831475943e-04</internalNodes>
          <leafValues>
            1.6967293620109558e-01 -6.5742111206054688e-01</leafValues></_>
        <_>
          <internalNodes>
            0 -1 84 -1.2426929315552115e-03</internalNodes>
          <leafValues>
            -9.4985395669937134e-01 1.0370018333196640e-01</leafValues></_>
        <_>
          <internalNodes>
            0 -1 79 1.9580635125748813e-04</internalNodes>
          <leafValues>
            1.4852005243301392e-01 -6.0499298572540283e-01</leafValues></_></weakClassifiers></_></stages>
  <features>
    <_>
      <rects>
        <_>
          0 0 6 16 -1.</_>
        <_>
          2 0 2 16 3.</_></rects>
      <tilted>0</tilted></_>
    <_>
      <rects>
        <_>
          0 0 19 8 -1.</_>
        <_>
          0 4 19 4 2.</_></rects>
      <tilted>0</tilted></_>
    <_>
      <rects>
        <_>
          0 1 1 10 -1.</_>
        <_>
          0 6 1 5 2.</_></rects>
      <tilted>0</tilted></_>
    <_>
      <rects>
        <_>
          0 2 4 14 -1.</_>
        <_>
          2 2 2 14 2.</_></rects>
      <tilted>0</tilted></_>
    <_>
      <rects>
        <_>
          0 2 6 21 -1.</_>
        <_>
          2 2 2 21 3.</_></rects>
      <tilted>0</tilted></_>
    <_>
      <rects>
        <_>
          0 2 11 6 -1.</_>
        <_>
          0 5 11 3 2.</_></rects>
      <tilted>0</tilted></_>
    <_>
      <rects>
        <_>
          0 4 1 9 -1.</_>
        <_>
          0 7 1 3 3.</_></rects>
      <tilted>0</tilted></_>
    <_>
      <rects>
        <_>
          0 4 6 17 -1.</_>
        <_>
          2 4 2 17 3.</_></rects>
      <tilted>0</tilted></_>
    <_>
      <rects>
        <_>
          0 5 24 4 -1.</_>
        <_>
          12 5 12 4 2.</_></rects>
      <tilted>0</tilted></_>
    <_>
      <rects>
        <_>
          0 6 1 6 -1.</_>
        <_>
          0 8 1 2 3.</_></rects>
      <tilted>0</tilted></_>
    <_>
      <rects>
        <_>
          0 11 1 8 -1.</_>
        <_>
          0 15 1 4 2.</_></rects>
      <tilted>0</tilted></_>
    <_>
      <rects>
        <_>
          0 12 24 12 -1.</_>
        <_>
          0 16 24 4 3.</_></rects>
      <tilted>0</tilted></_>
    <_>
      <rects>
        <_>
          0 13 6 1 -1.</_>
        <_>
          2 13 2 1 3.</_></rects>
      <tilted>0</tilted></_>
    <_>
      <rects>
        <_>
          0 14 1 9 -1.</_>
        <_>
          0 17 1 3 3.</_></rects>
      <tilted>0</tilted></_>
    <_>
      <rects>
        <_>
          0 15 1 6 -1.</_>
        <_>
          0 17 1 2 3.</_></rects>
      <tilted>0</tilted></_>
    <_>
      <rects>
        <_>
          0 15 8 1 -1.</_>
        <_>
          4 15 4 1 2.</_></rects>
      <tilted>0</tilted></_>
    <_>
      <rects>
        <_>
          0 23 12 1 -1.</_>
        <_>
          4 23 4 1 3.</_></rects>
      <tilted>0</tilted></_>
    <_>
      <rects>
        <_>
          1 0 9 1 -1.</_>
        <_>
          4 0 3 1 3.</_></rects>
      <tilted>0</tilted></_>
    <_>
      <rects>
        <_>
          1 0 20 1 -1.</_>
        <_>
          11 0 10 1 2.</_></rects>
      <tilted>0</tilted></_>
    <_>
      <rects>
        <_>
          1 0 15 6 -1.</_>
        <_>
          1 2 15 2 3.</_></rects>
      <tilted>0</tilted></_>
    <_>
      <rects>
        <_>
          1 3 6 20 -1.</_>
        <_>
          4 3 3 20 2.</_></rects>
      <tilted>0</tilted></_>
    <_>
      <rects>
        <_>
          1 15 22 3 -1.</_>
        <_>
          12 15 11 3 2.</_></rects>
      <tilted>0</tilted></_>
    <_>
      <rects>
        <_>
          1 17 12 6 -1.</_>
        <_>
          1 20 12 3 2.</_></rects>
      <tilted>0</tilted></_>
    <_>
      <rects>
        <_>
          1 18 15 6 -1.</_>
        <_>
          1 20 15 2 3.</_></rects>
      <tilted>0</tilted></_>
    <_>
      <rects>
        <_>
          1 23 18 1 -1.</_>
        <_>
          7 23 6 1 3.</_></rects>
      <tilted>0</tilted></_>
    <_>
      <rects>
        <_>
          2 3 3 21 -1.</_>
        <_>
          3 3 1 21 3.</_></rects>
      <tilted>0</tilted></_>
    <_>
      <rects>
        <_>
          2 23 20 1 -1.</_>
        <_>
          12 23 10 1 2.</_></rects>
      <tilted>0</tilted></_>
    <_>
      <rects>
        <_>
          3 2 6 15 -1.</_>
        <_>
          5 2 2 15 3.</_></rects>
      <tilted>0</tilted></_>
    <_>
      <rects>
        <_>
          3 17 4 4 -1.</_>
        <_>
          3 17 2 2 2.</_>
        <_>
          5 19 2 2 2.</_></rects>
      <tilted>0</tilted></_>
    <_>
      <rects>
        <_>
          4 0 14 1 -1.</_>
        <_>
          11 0 7 1 2.</_></rects>
      <tilted>0</tilted></_>
    <_>
      <rects>
        <_>
          4 18 10 2 -1.</_>
        <_>
          4 18 5 1 2.</_>
        <_>
          9 19 5 1 2.</_></rects>
      <tilted>0</tilted></_>
    <_>
      <rects>
        <_>
          4 19 15 3 -1.</_>
        <_>
          4 20 15 1 3.</_></rects>
      <tilted>0</tilted></_>
    <_>
      <rects>
        <_>
          4 23 2 1 -1.</_>
        <_>
          5 23 1 1 2.</_></rects>
      <tilted>0</tilted></_>
    <_>
      <rects>
        <_>
          4 23 8 1 -1.</_>
        <_>
          8 23 4 1 2.</_></rects>
      <tilted>0</tilted></_>
    <_>
      <rects>
        <_>
          4 23 12 1 -1.</_>
        <_>
          8 23 4 1 3.</_></rects>
      <tilted>0</tilted></_>
    <_>
      <rects>
        <_>
          4 23 16 1 -1.</_>
        <_>
          12 23 8 1 2.</_></rects>
      <tilted>0</tilted></_>
    <_>
      <rects>
        <_>
          5 0 2 1 -1.</_>
        <_>
          6 0 1 1 2.</_></rects>
      <tilted>0</tilted></_>
    <_>
      <rects>
        <_>
          5 7 3 17 -1.</_>
        <_>
          6 7 1 17 3.</_></rects>
      <tilted>0</tilted></_>
    <_>
      <rects>
        <_>
          5 8 4 4 -1.</_>
        <_>
          5 10 4 2 2.</_></rects>
      <tilted>0</tilted></_>
    <_>
      <rects>
        <_>
          5 22 6 2 -1.</_>
        <_>
          7 22 2 2 3.</_></rects>
      <tilted>0</tilted></_>
    <_>
      <rects>
        <_>
          5 23 3 1 -1.</_>
        <_>
          6 23 1 1 3.</_></rects>
      <tilted>0</tilted></_>
    <_>
      <rects>
        <_>
          6 0 16 1 -1.</_>
        <_>
          14 0 8 1 2.</_></rects>
      <tilted>0</tilted></_>
    <_>
      <rects>
        <_>
          6 15 7 3 -1.</_>
        <_>
          6 16 7 1 3.</_></rects>
      <tilted>0</tilted></_>
    <_>
      <rects>
        <_>
          6 23 3 1 -1.</_>
        <_>
          7 23 1 1 3.</_></rects>
      <tilted>0</tilted></_>
    <_>
      <rects>
        <_>
          7 0 8 1 -1.</_>
        <_>
          11 0 4 1 2.</_></rects>
      <tilted>0</tilted></_>
    <_>
      <rects>
        <_>
          7 0 12 1 -1.</_>
        <_>
          13 0 6 1 2.</_></rects>
      <tilted>0</tilted></_>
    <_>
      <rects>
        <_>
          7 5 12 14 -1.</_>
        <_>
          11 5 4 14 3.</_></rects>
      <tilted>0</tilted></_>
    <_>
      <rects>
        <_>
          7 5 8 2 -1.</_>
        <_>
          7 6 8 1 2.</_></rects>
      <tilted>0</tilted></_>
    <_>
      <rects>
        <_>
          7 9 6 11 -1.</_>
        <_>
          9 9 2 11 3.</_></rects>
      <tilted>0</tilted></_>
    <_>
      <rects>
        <_>
          8 0 13 6 -1.</_>
        <_>
          8 2 13 2 3.</_></rects>
      <tilted>0</tilted></_>
    <_>
      <rects>
        <_>
          8 2 16 2 -1.</_>
        <_>
          8 2 8 1 2.</_>
        <_>
          16 3 8 1 2.</_></rects>
      <tilted>0</tilted></_>
    <_>
      <rects>
        <_>
          8 17 3 6 -1.</_>
        <_>
          8 19 3 2 3.</_></rects>
      <tilted>0</tilted></_>
    <_>
      <rects>
        <_>
          8 20 4 4 -1.</_>
        <_>
          8 22 4 2 2.</_></rects>
      <tilted>0</tilted></_>
    <_>
      <rects>
        <_>
          8 23 16 1 -1.</_>
        <_>
          16 23 8 1 2.</_></rects>
      <tilted>0</tilted></_>
    <_>
      <rects>
        <_>
          9 5 4 2 -1.</_>
        <_>
          9 6 4 1 2.</_></rects>
      <tilted>0</tilted></_>
    <_>
      <rects>
        <_>
          9 15 2 2 -1.</_>
        <_>
          9 15 1 1 2.</_>
        <_>
          10 16 1 1 2.</_></rects>
      <tilted>0</tilted></_>
    <_>
      <rects>
        <_>
          9 15 3 2 -1.</_>
        <_>
          10 15 1 2 3.</_></rects>
      <tilted>0</tilted></_>
    <_>
      <rects>
        <_>
          10 1 2 10 -1.</_>
        <_>
          10 1 1 5 2.</_>
        <_>
          11 6 1 5 2.</_></rects>
      <tilted>0</tilted></_>
    <_>
      <rects>
        <_>
          10 10 2 2 -1.</_>
        <_>
          11 10 1 2 2.</_></rects>
      <tilted>0</tilted></_>
    <_>
      <rects>
        <_>
          10 11 2 3 -1.</_>
        <_>
          10 12 2 1 3.</_></rects>
      <tilted>0</tilted></_>
    <_>
      <rects>
        <_>
          10 22 3 2 -1.</_>
        <_>
          11 22 1 2 3.</_></rects>
      <tilted>0</tilted></_>
    <_>
      <rects>
        <_>
          10 23 3 1 -1.</_>
        <_>
          11 23 1 1 3.</_></rects>
      <tilted>0</tilted></_>
    <_>
      <rects>
        <_>
          11 2 12 17 -1.</_>
        <_>
          15 2 4 17 3.</_></rects>
      <tilted>0</tilted></_>
    <_>
      <rects>
        <_>
          11 5 6 2 -1.</_>
        <_>
          11 6 6 1 2.</_></rects>
      <tilted>0</tilted></_>
    <_>
      <rects>
        <_>
          11 6 3 2 -1.</_>
        <_>
          12 6 1 2 3.</_></rects>
      <tilted>0</tilted></_>
    <_>
      <rects>
        <_>
          11 15 12 4 -1.</_>
        <_>
          11 15 6 2 2.</_>
        <_>
          17 17 6 2 2.</_></rects>
      <tilted>0</tilted></_>
    <_>
      <rects>
        <_>
          12 0 9 1 -1.</_>
        <_>
          15 0 3 1 3.</_></rects>
      <tilted>0</tilted></_>
    <_>
      <rects>
        <_>
          12 4 4 18 -1.</_>
        <_>
          14 4 2 18 2.</_></rects>
      <tilted>0</tilted></_>
    <_>
      <rects>
        <_>
          12 7 5 3 -1.</_>
        <_>
          12 8 5 1 3.</_></rects>
      <tilted>0</tilted></_>
    <_>
      <rects>
        <_>
          12 15 1 6 -1.</_>
        <_>
          12 17 1 2 3.</_></rects>
      <tilted>0</tilted></_>
    <_>
      <rects>
        <_>
          13 2 8 4 -1.</_>
        <_>
          13 4 8 2 2.</_></rects>
      <tilted>0</tilted></_>
    <_>
      <rects>
        <_>
          13 16 10 2 -1.</_>
        <_>
          13 16 5 1 2.</_>
        <_>
          18 17 5 1 2.</_></rects>
      <tilted>0</tilted></_>
    <_>
      <rects>
        <_>
          14 4 3 12 -1.</_>
        <_>
          15 4 1 12 3.</_></rects>
      <tilted>0</tilted></_>
    <_>
      <rects>
        <_>
          15 20 1 4 -1.</_>
        <_>
          15 22 1 2 2.</_></rects>
      <tilted>0</tilted></_>
    <_>
      <rects>
        <_>
          16 0 6 1 -1.</_>
        <_>
          19 0 3 1 2.</_></rects>
      <tilted>0</tilted></_>
    <_>
      <rects>
        <_>
          16 0 8 15 -1.</_>
        <_>
          20 0 4 15 2.</_></rects>
      <tilted>0</tilted></_>
    <_>
      <rects>
        <_>
          16 5 4 7 -1.</_>
        <_>
          18 5 2 7 2.</_></rects>
      <tilted>0</tilted></_>
    <_>
      <rects>
        <_>
          16 8 3 8 -1.</_>
        <_>
          17 8 1 8 3.</_></rects>
      <tilted>0</tilted></_>
    <_>
      <rects>
        <_>
          16 12 3 3 -1.</_>
        <_>
          17 12 1 3 3.</_></rects>
      <tilted>0</tilted></_>
    <_>
      <rects>
        <_>
          17 0 3 1 -1.</_>
        <_>
          18 0 1 1 3.</_></rects>
      <tilted>0</tilted></_>
    <_>
      <rects>
        <_>
          17 22 6 2 -1.</_>
        <_>
          20 22 3 2 2.</_></rects>
      <tilted>0</tilted></_>
    <_>
      <rects>
        <_>
          18 0 6 21 -1.</_>
        <_>
          20 0 2 21 3.</_></rects>
      <tilted>0</tilted></_>
    <_>
      <rects>
        <_>
          18 2 6 22 -1.</_>
        <_>
          20 2 2 22 3.</_></rects>
      <tilted>0</tilted></_>
    <_>
      <rects>
        <_>
          18 3 6 19 -1.</_>
        <_>
          20 3 2 19 3.</_></rects>
      <tilted>0</tilted></_>
    <_>
      <rects>
        <_>
          20 0 4 1 -1.</_>
        <_>
          22 0 2 1 2.</_></rects>
      <tilted>0</tilted></_>
    <_>
      <rects>
        <_>
          21 0 1 16 -1.</_>
        <_>
          21 8 1 8 2.</_></rects>
      <tilted>0</tilted></_>
    <_>
      <rects>
        <_>
          22 10 2 12 -1.</_>
        <_>
          23 10 1 12 2.</_></rects>
      <tilted>0</tilted></_>
    <_>
      <rects>
        <_>
          23 0 1 21 -1.</_>
        <_>
          23 7 1 7 3.</_></rects>
      <tilted>0</tilted></_>
    <_>
      <rects>
        <_>
          23 3 1 3 -1.</_>
        <_>
          23 4 1 1 3.</_></rects>
      <tilted>0</tilted></_>
    <_>
      <rects>
        <_>
          23 3 1 9 -1.</_>
        <_>
          23 6 1 3 3.</_></rects>
      <tilted>0</tilted></_>
    <_>
      <rects>
        <_>
          23 6 1 9 -1.</_>
        <_>
          23 9 1 3 3.</_></rects>
      <tilted>0</tilted></_>
    <_>
      <rects>
        <_>
          23 11 1 3 -1.</_>
        <_>
          23 12 1 1 3.</_></rects>
      <tilted>0</tilted></_></features></cascade>
</opencv_storage>
